tree
version=v4
num_class=1
num_tree_per_iteration=1
label_index=0
max_feature_idx=39
objective=lambdarank
feature_names=mom_1m mom_12m mom_accel_1m mom_reversal mom_short_long mom_1w volatility_4w volatility_8w volatility_12w volatility_24w downside_vol_8w vol_ratio_4_12 vol_change_4w realized_var_8w avg_volume_4w avg_turnover_4w avg_volume_8w avg_turnover_8w avg_volume_12w avg_turnover_12w volume_change_1w turnover_change_1w avg_amount_4w kdj_j boll_width ma_ratio_4w ma_ratio_8w ma_slope_24w max_retreat_4w max_retreat_8w skewness_8w kurtosis_12w ret_quantile_25_8w obv_change_4w vol_price_corr_8w up_ratio_4w up_ratio_12w high_low_range_4w open_close_ratio_4w vol_up_down_ratio
feature_infos=[-6.9693115651598685:10] [-2.8816970215553659:10] [-10:10] [-10:10] [-10:8.9207897415611832] [-9.317051887512207:10] [-2.4819560185651577:10] [-2.8859927303468704:10] [-2.7704846040821272:10] [-2.959755582741229:10] [-4.2868684519927749:10] [-4.1479821487887714:4.8529802103164554] [-10:10] [-1.7079529244068914:10] [-0.72649947842959972:10] none [-0.70411797743089655:10] none [-0.6930617958765215:10] none [-1.760042667388916:10] none [-0.93253065707090255:10] [-8.3384971436670501:6.3061841871483617] [-2.9450319379935652:10] [-10:10] [-9.1944078752303398:10] [-4.2154038456144498:10] [-3.9788597570265916:10] [-4.2242659036330599:10] [-4.4723306276544772:4.8413740733612247] [-1.9944368323857691:10] [-10:10] [-10:10] [-10:10] [-5.0869393019597071:5.7809381780095022] [-4.5842979340545558:6.424241016082946] none none [-4.1370870686424865:10]
tree_sizes=9347 9364 9300 9317 9303 9287 9274 9270

Tree=0
num_leaves=83
num_cat=0
split_feature=9 2 8 35 29 3 28 27 6 3 8 33 9 29 33 3 9 27 33 0 6 33 33 28 6 25 28 0 26 27 28 8 39 28 2 29 35 8 33 3 8 27 39 0 6 9 33 9 27 11 28 6 29 28 2 28 2 2 25 9 28 33 33 25 35 11 8 9 11 29 6 39 35 25 26 9 8 39 0 25 8 11
split_gain=8.01837 7.21801 6.11852 5.54735 4.34357 4.61605 3.59717 3.54095 3.43634 3.33045 3.81959 3.29408 4.98514 3.20776 3.20151 3.50742 4.00061 4.08468 3.18939 3.13994 3.04059 3.66074 2.97573 6.62622 2.97115 2.93953 2.93716 3.07866 5.10552 2.81212 2.58866 2.56867 2.54051 2.36868 2.34951 2.34548 2.45854 2.27071 2.14078 2.13284 2.10612 2.0649 2.00717 1.99424 1.81224 1.78833 1.76266 1.6422 1.63996 1.58974 1.86409 1.58019 1.93953 2.01431 1.56094 2.57266 1.63209 1.52885 1.47159 1.46149 1.45378 1.43154 1.40732 1.61615 1.33914 1.31099 1.51689 1.75819 1.28029 1.27544 1.25071 1.20288 1.19185 1.18711 1.87166 1.19577 1.23465 1.11199 1.07736 1.02776 1.00994 1.04336
threshold=-1.0983236486622674 -0.85078062355705597 1.1051518899986077 -0.8403148280793159 0.44753210989341491 -0.31744602065214506 -0.40284381912786565 1.0643984563484021 -1.0607716628215791 -0.11626663244605288 -0.86053532269912214 0.016890103928744796 -1.4049026806379254 3.0776840366566378 -0.086265031248331056 -0.76337533147437187 -0.89408007478307161 -0.023704228972907335 0.034132082015275962 -0.48548207081235406 -0.70942832098163844 0.018463852815330032 -0.026258764788508412 -1.1913188685529252 -0.86281545136986715 -0.38303859525149725 0.15765772673403108 0.034734844789795591 0.35478891749895008 0.38731884050733228 1.1988362012837495 -0.61474426408350491 -0.79020288522599658 0.18917964777902505 -0.60303119683392759 -1.1747163589345087 0.36697720346852547 -0.65840142236308485 -0.0093202046118676645 -0.12435151117862886 0.98598367110165419 0.11920208998609508 -0.63643302013830805 1.9423917160692887 -1.0461314738669005 0.22590153189948911 -0.63285255432128895 -1.7926828002433346 1.9852613119689841 0.67565994260760653 -0.75882963563621553 -0.33390234818756387 0.86386009334388525 -0.45055181084447166 0.47026986463726383 -0.92611144569611736 1.3115479097879701 0.89544062221935428 0.537136751429376 -1.4484249002824094 0.21142513681322714 -0.02395386807620525 -0.044223111122846596 1.9561981456357038 0.26969847504777489 1.745565858162712 2.4372736785017177 1.830278591818933 -0.46628120060875861 0.50130937632056882 -1.0055001340967527 4.5692070297256953 -0.38162568110018219 1.7151157293918322 1.9818358624143653 4.3075009582226915 2.8214759210396312 2.0871548432842872 0.3028048806780676 -0.055626195636325836 -0.98227283135285448 -0.94632497602768528
decision_type=2 2 2 2 2 2 2 2 2 2 2 2 2 2 2 2 2 2 2 2 2 2 2 2 2 2 2 2 2 2 2 2 2 2 2 2 2 2 2 2 2 2 2 2 2 2 2 2 2 2 2 2 2 2 2 2 2 2 2 2 2 2 2 2 2 2 2 2 2 2 2 2 2 2 2 2 2 2 2 2 2 2
left_child=1 6 3 4 5 26 -1 14 22 19 -11 35 18 48 15 45 17 -17 -13 64 21 25 23 -3 29 69 27 70 -29 42 39 -12 54 -28 -33 -10 -37 -18 -31 -21 -35 49 -7 57 -38 60 -26 -24 71 -14 -51 79 53 -53 55 -16 -56 -34 -48 -20 -5 -54 72 -64 -9 66 78 -68 -25 -6 -2 73 -50 74 77 76 -75 -4 -15 -22 81 -49
right_child=2 8 13 7 20 24 -8 9 11 10 31 12 41 65 32 16 37 -19 59 30 51 -23 47 68 46 -27 33 28 -30 38 -32 34 43 40 -36 36 44 -39 -40 -41 -42 -43 -44 -45 -46 -47 58 80 62 50 -52 52 61 -55 56 -57 -58 -59 -60 -61 -62 -63 63 -65 -66 -67 67 -69 -70 -71 -72 -73 -74 75 -76 -77 -78 -79 -80 -81 -82 -83
leaf_value=0.008528939461487103 -0.0066690309671252977 0.0090065474120213842 0.0010659477671735157 0.010079062472762076 0.0094105994431213091 0.003092219269053789 -0.0022272462754481495 0.0004967516232461509 -0.0070682061934809054 0.0094103886738937641 -0.0054166651092989512 0.010033836827060778 -0.00097790645372130528 0.0040404214589854111 0.0039323872590010201 0.00021306777450419263 -0.0030573549422878354 0.01177168256183863 -0.0021461607544738179 0.0042978911663268471 -0.0017808297256876385 0.011005098106505146 -0.01063980354053058 -0.0027244803015762558 0.0049590004114334453 -0.0051139955727889964 0.0099313851392579255 0.01165407447005695 -0.0048425685089091945 0.00096428929790025309 -0.0039552287446106447 0.0059024194368499996 6.8893611834619731e-05 0.00069934229825598159 -0.00020299179133986071 -0.0033076068981289218 0.013285333152148728 0.0010055088416947439 0.010725528861631082 0.013466251149551085 0.011127106131555303 0.0040188896900513619 -0.002952993968617978 -0.0022674184542780247 0.00038962606935809784 0.00017485157396490887 -0.0038482147210133241 -0.0011085558663422156 0.0021147531302264737 -0.010276268682900661 -0.0014237486546178231 0.0095471355493920145 -0.0016958460018867076 0.0013786463806320949 -0.0031665594139957385 -0.00095587860896477939 0.0011673528037886541 0.0012191296770156488 0.00068171823429561134 0.0077679911472351114 0.002159468324961221 0.0017983481678962834 0.0058773596342820075 -0.0015894882721574377 -0.0072387530483504934 -0.0018134938702288345 0.011594092402835507 0.0044512781339718097 -0.0088183381037942443 0.0022210634959703777 -0.0020925515134509868 -0.0041697997821954968 -0.0062635630357293645 0.0033715058573788965 -0.0038860119217144994 0.010552362920918016 -0.0013275288032902237 -0.0042029969531410917 -0.0055062591955464153 -0.0082339763823953121 -0.0090133663599872901 -0.0063268269692306591
leaf_weight=5.02414886225597 4.3864627524162687 2.4033480698853955 88.089748729020357 4.7738286371604755 1.5213698192965281 3.6928257508188898 2.5749959154200033 5.256653695498243 6.4847709365130859 2.3862705926585468 4.6378100483416338 3.9199556519888601 7.520068907106177 3.8499149788403866 6.5372862907315712 3.1543538065889152 9.0858894858974946 3.587582894251681 2.8898940981453052 29.322604581611813 17.538788559802928 2.6120379831409073 4.5292652012431089 5.1219380203401661 1.3427236540155707 2.9605708069429975 1.8410035443957919 2.178523162205237 1.9455878262524491 3.8864286976750009 1.9983540817629535 3.8515119143703478 588.04160674025479 22.052924897187044 33.548807435799972 25.009030265006004 0.65432922364561807 44.343854246428236 1.8077042211516516 1.4632467937044591 1.1159312864765514 2.6410756551922523 16.237983999002608 18.570802982234454 6.9008175644994472 2.157392976587289 69.746257075930771 3.7256176762457489 3.8553928267065203 2.8961119766172487 2.3855821673787432 1.8679797413933581 24.934876936255023 14.640307059671612 28.073786849869066 60.691389338724548 5.7282198339526067 71.013571168507042 4.1568971473170668 1.1345570490520911 1.7437302709440698 8.6550443053856707 10.329893856542183 1.8722345012210997 1.598416581720812 1.3811098157893855 3.5836200538469711 4.0312607365776785 3.0125983265752465 12.43449785649136 13.029260012372106 2.4885643246961981 1.2267378039541679 13.38419504150807 4.6411697856528908 1.0200486426183477 3.967510412549017 2.2501461077772538 0.77709764950850502 1.4691583417661593 3.0895744251756652 4.8557452152235783
leaf_count=847 1468 449 42739 1109 395 1801 1995 2767 3121 692 1278 932 4521 2140 2901 1665 4053 617 1285 12912 9522 474 838 2549 543 1387 333 470 993 1221 603 1459 288544 9075 15846 15985 78 22121 277 89 229 1609 8123 8968 4793 1248 34549 2597 1816 765 1568 421 12014 7430 13989 31581 2331 31877 1578 373 891 4103 3926 827 570 590 504 1793 748 5213 6799 788 576 6491 2215 236 1769 1235 351 455 951 2836
internal_value=1.19456e-05 -0.00204502 0.000163414 -1.56651e-05 -0.00102956 -0.0018084 0.00488098 0.000241226 -0.00263553 0.00169073 0.000297935 -0.00168371 0.000513033 0.00158844 9.74208e-05 0.00162792 0.000992839 0.00636767 0.00528 0.00325101 0.000265547 0.00284556 -0.00485714 -0.00179117 -0.00269848 0.00158402 0.000119841 -0.00188374 0.00386586 -0.00051971 0.00420412 -0.000218806 -3.78707e-05 0.00184643 0.000425131 -0.00300001 -0.00218906 0.000314131 0.00406792 0.00473459 0.0012028 -0.00193774 -0.00183165 0.000125407 0.00151025 0.00602998 -0.00344012 -0.0068499 0.00123799 -0.00316862 -0.00628284 -0.000463182 0.000226051 0.0023046 -0.00113324 -0.000480163 -0.00243138 0.00019287 -0.00359308 0.000643042 0.00796422 -0.000794761 0.00336609 0.00472965 -0.0013036 0.00501117 0.00578316 0.00781632 -0.0049846 0.00300678 -0.00324674 0.00092024 8.72583e-05 0.00103222 0.000698606 0.00275558 0.00229563 0.000934424 0.00243148 -0.00228103 -0.00537676 -0.0040643
internal_weight=1411.14 96.7734 1314.37 1167.62 236.055 147.421 7.59914 931.567 89.1743 84.0637 44.4244 62.4362 23.3872 146.749 847.503 68.8466 60.1717 6.74194 7.94441 39.6393 88.6346 19.5285 26.7381 10.5379 100.871 16.9164 46.5497 21.5398 4.12411 25.6249 32.7842 42.0381 778.657 25.0099 37.4003 39.0489 32.5642 53.4297 5.69413 30.7859 23.1689 15.4428 19.9308 677.626 7.55515 8.67495 75.2459 16.2002 133.126 12.8018 5.28169 69.1062 50.0982 16.5083 101.031 67.2287 33.802 659.055 73.9032 4.02445 6.51756 33.5899 17.2843 12.2021 6.85507 13.623 12.2419 7.61488 8.13454 13.9559 17.4157 115.841 5.08213 113.353 94.9811 18.3718 17.3517 90.3399 4.62701 19.0079 11.6709 8.58136
internal_count=673820 48840 624980 556984 108873 67459 2842 448111 45998 36216 19275 35030 11053 67996 411895 31704 28456 2282 2590 16941 41414 7469 10968 3746 48092 6995 19367 9730 1463 11422 13604 18583 380191 9637 17305 23977 20856 26174 1498 13001 9304 8463 9924 329389 4871 3248 36670 7222 62618 6854 2333 33945 23968 7851 50802 34482 16320 320421 36127 1658 2000 16117 7145 4753 3337 5378 4788 2297 3297 5608 8267 55473 2392 54685 46189 8496 8260 43974 2491 9977 6384 5433
is_linear=0
shrinkage=0.00740447


Tree=1
num_leaves=83
num_cat=0
split_feature=13 30 3 23 23 39 13 35 35 39 3 0 9 20 26 3 9 30 30 26 25 6 39 30 3 9 16 25 20 39 20 35 0 14 16 11 11 14 3 14 13 16 0 39 0 25 14 11 11 9 6 35 25 35 39 3 13 9 9 20 26 23 16 16 3 6 20 23 3 14 9 9 0 3 20 6 13 6 26 13 35 13
split_gain=15.9125 9.66151 8.17787 6.93829 6.58838 7.6155 6.00332 5.30281 7.28966 6.26091 6.41513 6.11637 5.68359 4.47672 4.74196 5.39642 4.57034 4.44915 4.91528 4.4335 4.43093 4.32791 4.12961 4.02268 4.01027 6.28425 5.94488 3.75591 3.72782 3.66267 5.9083 5.96876 5.19385 3.49294 4.89504 4.57055 3.47645 5.14913 5.30303 5.14145 4.86365 4.08758 3.84433 3.46641 3.40489 3.34286 3.31029 3.27661 3.2158 5.25725 3.64131 3.07366 3.01644 4.05439 3.00787 4.85003 2.91457 4.36339 4.31078 6.04674 3.22472 2.8352 2.78637 2.64776 2.51063 2.49903 2.39297 2.20521 2.18809 2.22761 2.13481 1.96625 1.86278 1.83651 1.798 1.75077 2.52804 1.86864 1.68839 1.67684 1.66779 1.65638
threshold=-0.36703204126531525 2.2953749815466487 -1.8412050188001021 -1.3841205951855799 0.21516775491013998 -0.79993339494051285 1.0839398855982525 -1.7842598903362414 -1.9794300247929246 0.14142266056457431 -0.70546233939267933 -0.22360293454477106 -0.78111967481929623 -0.74185746908187855 -1.1103687196225773 -0.092537084203965905 -0.042013737977931516 0.066793758547563281 -0.38577476707151687 0.067831855524151621 0.61037990453679247 -1.0761540594784467 -0.53914806347554645 2.7388684264774654 0.28061727400268799 -1.0174414130132399 1.4348365118735578 -0.277924804765036 0.12978462129831317 -0.38873638445613218 -0.60740301012992848 -0.68268504484590331 -2.1290597528445727 1.0602484055986128 1.4348365118735578 0.21390921687164999 -1.4625756963012446 1.7749554434441328 -0.12435151117862886 -0.30609543476204953 -0.029659911850860168 0.9195092473871308 -0.25428212243707621 -1.2402628180559461 -1.082823700310956 0.18283548099424859 -0.32584112110097191 1.7860816703654965 -1.570943976853034 1.4809970950233937 -0.90839760233889455 -0.65417028106408703 -0.16087837884706499 0.833582115090303 0.27727719336616113 0.47055850485853518 -0.56771288852534663 -1.068827337552589 -1.0983236486622674 -0.3014798611402511 0.16009030239831432 -0.99660768940145539 -0.19656627017318629 -0.26737828195784846 1.4731567102149639 -0.76662862788270691 -0.035830466076731675 -0.30249605347997421 -0.30759659890653551 -0.040700180587374186 -0.96967585299699588 -0.40787753313959213 0.1413721098030449 0.095740682396876067 -0.52053311467170704 -0.9184070243649981 -0.21596497178599941 -0.67544169593469927 0.28036195468831732 -0.45387054694849166 0.75236017345742667 2.4829780583842957
decision_type=2 2 2 2 2 2 2 2 2 2 2 2 2 2 2 2 2 2 2 2 2 2 2 2 2 2 2 2 2 2 2 2 2 2 2 2 2 2 2 2 2 2 2 2 2 2 2 2 2 2 2 2 2 2 2 2 2 2 2 2 2 2 2 2 2 2 2 2 2 2 2 2 2 2 2 2 2 2 2 2 2 2
left_child=1 4 3 6 7 17 -2 8 62 10 11 22 73 45 20 36 75 18 28 68 21 -15 -9 29 25 -12 -26 -19 46 30 -5 78 -31 56 -35 -36 39 41 -39 40 -16 -38 -41 64 -33 81 -6 61 49 -23 -50 -13 -29 -54 55 -14 58 60 59 -7 -58 -34 71 -60 -18 -45 -3 -21 69 -11 -20 -1 -37 -10 -59 76 -17 -77 -32 -64 -72 -4
right_child=2 66 13 23 5 33 -8 9 12 19 24 51 54 14 15 16 43 27 70 67 -22 48 -24 -25 26 -27 -28 52 -30 32 31 44 47 34 35 72 37 38 -40 42 -42 -43 -44 65 -46 -47 -48 -49 50 -51 -52 -53 53 -55 -56 -57 57 74 63 -61 -62 -63 79 -65 -66 -67 -68 -69 -70 -71 80 -73 -74 -75 -76 77 -78 -79 -80 -81 -82 -83
leaf_value=0.0022769690394741837 0.0025079855860817607 0.0028269957000909072 -0.0040589503656986168 -0.0061325035960912641 0.0042811172352058245 -0.0063073582552555414 -0.007801067280681512 -0.0046188107962132257 -0.0073158790726433193 -0.0015632829592386564 -0.0045603774660600413 0.0092949852265224366 -0.0021118915960002651 0.0072906740844862891 -0.0049949010196032638 -0.00078474595039843378 0.0014432116454743526 -0.0032245880043069689 -0.0077122350931828941 -0.0080597896830696333 0.0077205757050913849 0.0014057568273443722 0.002427984876030203 0.010767101310589897 -0.00091157980059606604 -0.0013600947068454665 0.0058799951243685795 0.011964205396994373 0.0084808718189997821 -0.0077624048264941887 0.0095096764062189369 -0.0053039550039943413 0.0069480103208191474 0.0076295144636058425 -0.0048366578648161348 0.0086482391546580106 0.00057155015097872506 0.0026092158570464254 0.013074465700467188 0.0016574937032210995 0.0044718432616532794 -0.0028398442458445658 0.0062958673194289331 -0.0022650057883021198 0.0034443867499782477 0.0025851081686726596 -0.0024030097425056214 -0.0057464357080146819 -0.0087601352866897783 -0.0081847801861236729 0.0015970610818805669 0.0022204653095305878 0.0064353785749522077 -0.0019863410705750215 0.010405404201109948 0.0098052581845129039 -0.0051301868038231505 -0.0054656206946584636 0.00012253842235624346 0.0023042858733206147 -0.0010253271138970987 0.0017173181922543073 -0.0068509039057488954 -0.003565058881203613 0.0074981291475910566 0.00022873407170387802 0.0094971056010189348 -0.0034872546089017779 -0.0030164151776954935 0.0045850609066530818 -0.0038813492213827924 -0.0034210801225737211 0.00069899345100844724 0.0014790825878314567 -0.00045485322534276692 0.00094265068749283291 -0.0069423134639908842 -0.0012425728327340262 0.0041303395377846773 0.00076345098156194776 0.0054376658848499047 -0.012058182807492185
leaf_weight=9.5241377058264316 5.6837558795814385 6.4299054796283599 12.778213528596099 2.995332281687296 7.995670908741892 4.8803788473014711 6.7973606467130594 8.2689628049556649 2.1621295349905294 13.002222334442196 46.189335275266785 6.8766560597287025 3.8887436066288483 6.457142627623397 8.0265783535724022 7.9930354903335683 10.953335149242777 2.825236499396854 4.3847178807191085 13.044691725779559 6.2608215785003258 7.8763291718787496 10.159277561295314 3.2777747026411808 154.63065241638105 123.97103136702208 7.4036319460719815 3.6768642491078998 4.532635666022542 3.2099693781055967 12.656850144587226 2.6468160797958253 6.2028955830901387 6.7235144108999547 6.0548525534395576 2.8023199534509331 439.67601261805976 16.924196654465053 3.1510128316585897 20.057424142869422 4.7256606812588862 20.136865439955727 19.18490260373801 23.497837850823998 30.766157074453076 4.1550179047626434 8.2528214554185997 2.991961031802929 1.8876359614660021 5.2004138822085224 127.5517876544036 6.6196577714290452 14.490162299218353 3.9936499633477061 6.8827230850583874 3.6058066508849151 24.501436016245862 4.0632358705333891 24.062074758054223 53.018955602368806 18.382012157380814 68.098042810190236 6.5596588714979589 19.170272593270056 5.7235356646706341 353.00594415779051 5.4696949836506956 10.434446946601382 61.483656410971889 4.2986229899106538 2.8708562661777233 5.0958406945574124 3.8358088234090246 3.2619831829797477 117.22022491482494 24.679801308724564 6.7521969632070959 163.58843547690776 4.3067406077752812 2.083652198489288 1.661658262601122 1.6012192915368348
leaf_count=1755 955 790 4475 490 1573 734 490 1506 468 3262 12270 254 778 565 1377 2434 4151 788 640 2548 284 1096 1958 292 48930 37725 1281 269 767 395 1226 465 750 892 1469 408 117851 4065 130 3723 1043 5173 3134 6178 4853 675 2248 712 233 718 34288 1295 1827 895 425 317 4866 1406 7854 6793 3812 13506 1295 6316 597 130128 422 2970 22974 841 950 975 656 602 44180 7347 1733 81642 494 500 523 145
internal_value=6.75285e-05 -0.000730117 0.00054056 0.00217995 -0.000823025 -2.37371e-05 -0.00310452 -0.00135547 0.00113023 -0.00158505 -0.00113029 0.00203974 0.00443252 0.00035211 0.000404309 0.000237316 -0.00024637 0.002507 0.000568809 -0.00320401 0.00161768 0.00136101 -0.000732678 0.00266103 -0.00143501 -0.00222895 -0.000601098 0.00480972 0.00254278 0.00246235 0.00396678 0.00456779 0.00146463 -0.000509897 0.00252136 -0.000182627 0.000779532 0.000582421 0.00425325 0.0025983 -0.0014848 0.000422097 0.00392578 0.000219422 0.0027506 -0.00326073 0.000884661 0.00184818 0.00109216 -0.00240646 0.00144581 0.00582704 0.00583515 0.00461443 0.00686947 0.00361861 -0.000731842 -0.001341 0.000256763 0.00157795 -0.00337123 0.00215435 -0.0016796 -0.00151207 0.00352285 7.30309e-05 0.00589518 -0.00602882 -0.00236184 -3.41643e-05 -0.00402859 0.000289176 0.00405877 -0.00202238 -0.000622941 -0.0011486 -0.00360621 -0.000955983 0.00814552 -0.00501248 -0.000459335 -0.00495166
internal_weight=2312.23 860.746 1451.48 149.634 848.847 339.399 12.4811 509.448 43.0647 466.383 364.119 31.9246 19.8014 1301.85 1283.31 1128.08 596.194 54.6843 29.6984 102.264 155.234 148.973 18.4282 137.153 332.195 170.16 162.034 24.9859 20.7811 133.875 53.3719 50.3766 80.5029 284.715 19.4165 12.693 531.883 479.888 20.0752 51.9946 12.7522 459.813 39.2423 393.181 33.413 18.5345 16.2485 77.2929 142.516 13.0767 129.439 13.4963 22.1607 18.4838 14.3773 7.49455 265.299 164.167 101.132 57.8993 42.8834 74.3009 23.2633 43.2323 16.6769 376.504 11.8996 23.4791 78.7845 17.3008 8.91723 14.62 6.63813 5.42411 121.283 203.013 14.7452 188.268 16.9636 8.64331 4.53251 14.3794
internal_count=673820 236007 437813 24628 234795 89866 1445 144929 7115 137814 105219 5013 2590 413185 407890 370706 234210 10480 6701 32595 37184 36900 3464 23183 100206 49995 50211 3779 4588 22891 7528 7038 15363 79386 3425 2533 136496 127219 4195 9277 2420 123024 6857 141054 5318 5295 3821 14968 36335 1814 34521 1549 2991 2722 1520 1095 75961 54264 21697 7527 8678 14256 4525 14170 4748 136306 1212 5518 27077 4103 2113 2730 1064 1070 45586 93156 4167 88989 1720 1795 1473 4620
is_linear=0
shrinkage=0.00740447


Tree=2
num_leaves=83
num_cat=0
split_feature=3 8 6 33 6 3 16 8 33 16 0 3 8 5 31 13 20 9 28 3 5 5 9 20 9 16 20 14 13 14 8 9 20 9 36 35 0 3 6 36 0 31 5 31 3 16 13 9 9 9 6 35 3 20 16 33 28 31 31 35 33 0 35 16 14 0 13 20 35 16 5 8 35 35 35 3 36 36 14 33 9 9
split_gain=54.2354 23.1387 15.8584 11.8538 10.4971 14.1226 9.65564 8.66145 8.65007 6.43771 6.18382 6.13805 5.89728 5.55003 5.11813 5.53668 4.96468 4.80102 5.7165 5.77501 4.76664 4.66142 4.61395 6.70119 4.56653 7.91085 6.28174 5.4027 4.50948 5.62881 5.33966 7.16273 4.82858 4.49527 4.46514 4.42696 4.15929 4.71321 4.15177 4.14667 5.61838 4.23161 4.1019 4.07839 3.77929 3.73774 3.69578 4.73075 5.46249 3.91322 4.36035 6.21157 3.57964 3.44493 3.34631 4.83617 3.36826 3.3258 5.09712 5.31698 3.93038 3.23551 6.61358 3.2741 3.15086 3.85112 4.64717 3.10482 2.94613 4.18605 2.90904 2.81696 2.76814 2.69343 2.68514 3.96925 2.66539 2.61712 2.55559 2.54126 2.53254 2.43307
threshold=-0.76337533147437187 2.2942682492473687 -0.97060098137164497 -0.079223427921533571 -0.61573040473743268 -2.171178685330577 1.3143383535747035 -0.99477755526806921 -0.02266756352037191 1.9623700366995689 1.2710688612661687 0.81957569456890467 -1.0069524049374883 -1.7626827359199522 1.9232034640998077 0.59764290870736148 0.0575963743031025 -0.0089793166995087836 -1.8354492052076783 -0.10805479769724492 0.65125772356987011 0.25102278590202337 -0.87458198080889504 0.59983956813812267 0.061645570246669439 -0.017758259806041916 -0.12402803078293799 0.22994590469634482 -0.015383911018949025 1.9958277874195629 4.6991978383045554 1.9045987973809175 -0.20540559291839597 1.3923776014563394 -0.027109188034666488 0.028172090326860671 -0.74772216738351782 -0.092537084203965905 -1.1096208163742143 1.108588444583462 -1.3284001829267895 -0.02920820020567692 -0.4356353878974914 1.2870811702584934 -0.34007285451843011 -0.044822199394633645 -0.15764619062543081 -0.71147818545618835 -1.4484249002824094 0.56995526751365744 -0.75203695469201115 -1.0579536773041835 -0.54243262311925522 -0.86489513516426075 2.6621367758182974 -0.022265546023845669 0.45060058367616018 2.1817493677563209 0.90120504184585337 -1.5808162995244111 0.0032105178106576209 -0.81809044772336115 -0.76814179834441798 -0.059307757503413189 0.12525849221930496 -0.29182073031631639 -0.38700584600916926 -0.056737231090664857 0.76551342499475084 -0.21124163080443156 -0.23710086196660993 -0.48790651549327324 -0.87473820764693355 -1.3850163269752416 -1.0513423758452307 2.532457539887869 -0.64314212828186179 0.58293381511870168 0.63961940744732482 0.028826268389821056 2.7591004308407991 0.67946342098382129
decision_type=2 2 2 2 2 2 2 2 2 2 2 2 2 2 2 2 2 2 2 2 2 2 2 2 2 2 2 2 2 2 2 2 2 2 2 2 2 2 2 2 2 2 2 2 2 2 2 2 2 2 2 2 2 2 2 2 2 2 2 2 2 2 2 2 2 2 2 2 2 2 2 2 2 2 2 2 2 2 2 2 2 2
left_child=4 2 14 6 8 28 22 -7 46 17 11 20 -8 -9 15 33 24 18 -5 -20 -11 -13 23 34 -3 26 -26 -27 32 57 31 -31 -6 36 -4 45 38 -38 -2 40 -10 -41 -14 -29 72 -18 47 48 -1 50 51 -48 -16 -15 56 -56 -55 58 59 -30 -59 -42 -63 -64 65 66 -49 -28 80 -70 -44 -54 -24 -51 78 -76 -73 -60 -19 -43 -37 -46
right_child=1 16 3 9 5 7 12 13 39 10 -12 21 42 53 52 -17 35 74 19 -21 -22 -23 44 -25 25 27 67 43 29 30 -32 -33 -34 -35 -36 68 37 -39 -40 41 61 79 70 -45 81 -47 49 64 -50 73 -52 -53 71 54 55 -57 -58 60 77 -61 -62 62 63 -65 -66 -67 -68 -69 69 -71 -72 76 -74 -75 75 -77 -78 -79 -80 -81 -82 -83
leaf_value=0.0094125832478029955 0.0008867669966271469 0.0084022260629476458 -0.0010830517037788709 0.0074670293765816669 0.0043273249354123279 0.0061713455093781724 0.012451036664601813 -0.005281658839547186 0.0073961718566160281 -0.00019841431464531035 0.0075677553299942956 -9.3554977885502695e-05 -0.0049184583131593532 0.0080724928425523115 0.0059259028118066629 0.0092242885876172055 0.0020895683826513724 -9.3668671380613971e-05 -0.00094711769390117126 -0.0026172913317998583 -0.0080400598296025885 0.010652705305685116 0.0026798343955993539 0.0088462867209795609 0.0012002010374627863 -0.004547613032801801 0.010973098961792833 0.0050723104911907079 -0.00051743449677587715 0.0018741408400664281 0.0039271288392754167 -0.0084048215422936525 -0.0039471713808451265 0.0074746340871663037 0.003479895886921163 0.001392686603009081 0.0021807279435467532 -0.00046450157488992709 0.0055162877517966509 1.4767571947620439e-05 -0.0079204132137836638 0.0088549890146183523 0.011077288851589318 -0.0034311111470785331 -0.0019018242146400428 -0.006854069457819606 0.0029729178457092156 -0.0018347684558373681 0.00057416013387074044 0.0034050126068474302 0.0053134405183768588 -0.0061803379975130966 -0.0082529152241217589 0.00059483443039248275 0.0070483176071526321 -0.0020984523327215797 -0.0011641458187133312 -0.00091516792999269856 0.0040816349396321583 0.0040190560075917302 0.0049783700265569955 0.0045586602977989487 -0.0011087796805894343 -0.0084566845149218264 0.0029365064341198652 0.010136348813042376 0.0079434863946112131 0.0050339692904848715 0.005661626158027502 -0.0030475639586795243 0.001874162172836236 0.0016589086173466486 -0.0020811611541680809 0.008470926062734533 -0.0013727805306819987 0.0047442790546154204 -0.0064307934361872467 0.0084806608733288182 0.0053960642292204672 0.0029845704659304485 0.0096138928573298622 0.00067756482719300536
leaf_weight=5.2117489601951119 24.101636679493822 11.077837204327805 27.508882235502824 3.4258195071015498 6.1484220924903665 13.456190486147532 5.1935896170907645 10.154262456111608 4.0540712481597465 26.233509420533668 7.0958798539068075 4.2367407243582402 2.7722317813022519 3.0831699233967802 2.1652072457363856 4.6327945461962363 4.1984205249464139 64.452327922830591 160.90346851214417 385.76148209444364 5.0729815048980518 4.6225565264176112 25.899784509558231 6.5586997731588772 10.887701647210635 8.9189802682376484 10.45649549883092 11.073708394134881 16.613583489845041 7.9153745562070981 10.5849782594305 7.0017313259304501 10.412620499089824 5.8057658534962675 20.528551357594552 3.7517128461913689 53.56770299479831 118.87341399182333 19.009194623416988 12.884131468628768 4.2056486610672499 7.5211519015429102 3.1402555333334012 4.2866472012829027 90.282818382227561 6.5582721757818963 9.1022519466059766 3.8092042560456294 14.524478658160659 15.489809721766507 8.932056292134801 7.342094678606375 5.8836193852475853 183.75994363601785 8.82797453610692 4.9385128436260848 88.396742915676441 16.97630532929907 12.312827618850863 95.732898311427562 9.7722451326262654 7.9763159273716235 8.8733682028832899 5.3256749432766641 7.4509959437709758 21.836742187995696 8.8395591382868588 9.0034546974347887 4.8697122608427907 7.9886116880224982 4.7235958884120919 5.3897290333698038 9.0237462888471764 9.1812020020734035 380.1459463173378 5.9041402401635414 3.8083700432616716 18.752157677401556 5.0097311598074148 8.7812920222058874 4.561915021011373 25.756908358540386
leaf_count=347 2148 243 5286 622 564 944 169 2811 162 4288 924 639 932 519 242 290 503 17934 59567 187785 805 333 5282 234 803 1100 427 1093 823 766 316 585 1267 487 2028 652 9777 31416 2166 2145 476 770 257 523 41112 785 803 680 1287 768 546 406 1411 36236 551 921 24125 784 696 9102 489 689 1652 822 439 632 734 687 331 1118 840 752 4339 509 172449 1024 976 1109 860 1074 269 10363
internal_value=0.000152867 -0.000591794 -0.000816607 -0.00114733 0.0018805 0.00136092 0.000409996 0.000360069 0.00347187 -0.00147481 0.00119563 6.92331e-05 0.0059823 9.85898e-05 0.000915837 0.00121263 0.00290216 -0.00160034 -0.00206595 -0.00212574 -0.00146995 0.00551096 -1.90034e-05 0.00182553 0.00406615 0.00318634 0.00570666 3.50489e-05 0.00283511 0.00314915 -9.39762e-05 -0.00294898 -0.000873683 0.00104483 0.000866396 0.000506025 0.000871527 0.000357081 0.0029287 0.00119393 -0.000717665 0.00318812 0.00282104 0.00269761 -0.000686247 -0.00336104 0.00468732 0.00590098 0.00290949 0.00319122 0.00114846 -0.00111238 -0.00297169 0.000287716 0.000203676 0.00376529 2.34246e-05 0.00363534 0.00408248 0.00334799 0.00123707 -0.00196556 -0.000834987 -0.00386664 0.00730822 0.00825202 0.00499682 0.00822666 0.00247193 0.000248922 0.00555266 -0.00425081 0.00144895 0.00529135 -0.001038 -0.00127916 -0.00168796 0.00673793 0.000301928 0.00569453 0.00590705 -0.00132907
internal_weight=2311.31 1615.12 1517.49 1274.25 696.182 524.84 221.389 312.617 171.342 1052.86 47.2617 40.1658 15.8297 299.161 243.237 225.991 97.6335 1005.6 550.091 546.665 31.3065 8.8593 205.559 54.5961 65.7048 54.627 30.3477 24.2793 212.223 195.662 25.5021 14.9171 16.561 221.358 48.0374 31.9286 215.552 172.441 43.1108 59.6217 30.4351 29.1866 10.6361 15.3604 150.963 10.7567 111.72 61.6727 19.7362 50.0474 25.3764 16.4443 17.2469 289.006 285.923 13.7665 272.157 170.16 143.411 112.346 26.7486 26.381 22.1754 14.199 41.9365 34.4855 12.6488 19.46 21.172 12.8583 7.86385 15.0817 34.9235 24.671 455.512 386.05 9.1981 31.065 69.4621 16.3024 8.31363 116.04
internal_count=673820 576271 567737 518072 97549 82608 70842 66107 14941 447230 6989 6065 2198 65163 49665 46284 8534 440241 247974 247352 5093 972 68644 7548 4876 4633 1917 2716 16501 14670 1667 1351 1831 45994 7314 3658 45507 41193 4314 7790 3801 3989 2029 1616 61096 1288 7151 4119 1634 3032 1755 1209 3381 62352 61833 1472 60361 13003 11730 9925 1273 3639 3163 2474 2485 2046 1414 1114 2370 1449 1097 3139 9621 1277 192267 173473 1728 1805 18794 1844 921 51475
is_linear=0
shrinkage=0.00740447


Tree=3
num_leaves=83
num_cat=0
split_feature=1 29 27 7 35 11 18 7 7 26 11 11 1 11 28 18 30 27 23 29 11 28 30 35 35 29 7 35 30 1 26 1 25 27 20 25 28 1 23 29 16 11 7 16 30 16 35 29 29 20 25 27 14 20 26 25 23 29 27 35 7 16 30 25 30 26 26 14 35 20 26 30 27 25 35 14 16 7 23 23 20 35
split_gain=79.7835 38.7323 32.9709 25.4815 21.0562 15.6688 17.4816 11.2214 9.66782 9.29935 9.20132 9.16973 8.3213 8.02905 7.78293 7.40716 7.13769 6.92539 6.77702 6.82508 6.1785 5.86044 5.41413 5.2166 5.36056 4.99344 5.42499 4.97076 5.91697 4.75736 4.68182 4.45276 4.43633 4.3413 4.16876 5.74559 5.68922 6.10171 4.37841 4.11915 4.07282 4.00136 5.02755 4.07427 3.94877 3.88106 3.95746 3.84896 3.79397 3.73502 3.5985 3.53764 3.39967 3.65554 4.04797 3.35353 3.54842 3.34689 3.27067 4.39679 4.19422 3.18477 2.82591 2.7519 2.68071 2.64041 2.58149 2.56352 2.45397 2.38108 2.34208 2.06517 1.96513 1.83947 1.7861 1.76793 5.1672 1.7188 1.63176 1.31837 1.31382 1.54101
threshold=-1.0000000180025095e-35 3.0776840366566378 1.4378109114795772 1.2807999769698255 -1.6484749174463469 -1.0335303318529145 1.2002038050770649 -1.1615217846234798 3.1227085500346639 3.0206094014352778 -1.4873123402699959 -2.0734337229853996 -0.16937191592632964 0.23650993253685051 0.68943453889447204 0.90408154396817897 -0.46712276848610029 1.4902600707065876 0.48656276810916538 0.1825073833984153 -1.7562766635689628 -0.42774089596555265 -0.74929499042615177 -1.2714111743080079 -0.495931392658092 -0.44115413067272463 2.1602163542369861 -0.59825659217633331 -0.68535201126183132 -0.52353035552003069 0.18622837578337617 0.83807955568620096 4.3926103213719303 0.50925153161535219 -0.17952929437160489 -1.0486223909396963 2.6292606914043479 2.0076739287734569 0.48656276810916538 -0.86778352292217231 2.6621367758182974 -0.68711359869049649 -0.98411794744977354 0.045845596914858143 1.6079584350075933 1.3143383535747035 -0.10946785796616752 -1.7727714867522033 -1.4392699050714184 -0.034888649359345429 -0.45139775021114625 -0.36479099857773895 -0.41588051176740354 -0.53118148446083058 -1.2153594082629056 -2.8990608051803717 0.024660503073076146 -1.3448089439169675 0.72905615018324088 -1.1957464526090738 3.1227085500346639 0.084979992427252196 -1.7725686745786755 -0.41641070411640352 0.1056940706743501 -0.46082820589210044 -0.44048483871038308 0.39653299698974293 2.2163645711108915 0.019343281164765361 -0.47439582375391326 -0.98879079656881019 -0.29510022371931049 0.14960294979938657 0.72686067673857258 -0.1622620054478813 -0.25573665520007882 2.2869695521491793 0.55563978519839241 0.10122169645147226 -0.34583985805511469 -0.75022198844187393
decision_type=2 2 2 2 2 2 2 2 2 2 2 2 2 2 2 2 2 2 2 2 2 2 2 2 2 2 2 2 2 2 2 2 2 2 2 2 2 2 2 2 2 2 2 2 2 2 2 2 2 2 2 2 2 2 2 2 2 2 2 2 2 2 2 2 2 2 2 2 2 2 2 2 2 2 2 2 2 2 2 2 2 2
left_child=3 2 5 4 15 9 8 18 27 16 22 79 55 45 48 20 61 32 19 57 75 -17 50 72 -25 26 31 28 -7 -20 63 -13 40 44 36 38 37 -27 -36 -29 52 42 -14 -43 -10 74 -47 -18 -15 64 -9 -49 -5 67 -55 -12 -57 -6 70 -60 77 71 -63 65 -31 -22 -16 -54 -37 -33 80 -2 -24 -51 -8 76 -1 -61 -65 -4 -3 -82
right_child=1 58 11 17 7 6 13 10 33 -11 12 25 41 14 66 21 47 -19 29 -21 30 -23 23 24 -26 34 -28 39 -30 49 -32 69 -34 -35 35 68 -38 -39 -40 -41 -42 43 -44 -45 -46 46 -48 51 -50 73 -52 -53 53 54 -56 56 -58 -59 59 60 -62 62 -64 78 -66 -67 -68 -69 -70 -71 -72 -73 -74 -75 -76 -77 -78 -79 -80 -81 81 -83
leaf_value=0.0059037489665833354 -0.0033734970828212243 0.009913449028276157 0.0050193806840356124 0.0075207630010457492 0.0021883402451008116 -0.0037628887195569091 0.0018508617088067187 0.0028016352762199846 0.0012889580187679503 0.011132791980549443 0.0075949919166861642 0.0099346125787261041 0.0084172653384562302 0.0098492396512716088 0.003216904137075656 0.013045081019640784 0.0072606112275016522 0.010571006295756214 -0.0027184118832624146 0.0095692814018572062 -0.0014915759684785905 0.0020438932486916569 -0.00086256998802286479 0.0058230862218012292 -1.9991270016047728e-05 0.001054062324944407 -0.0034147886026377255 -0.00024120988304376348 0.00058313251700905404 0.0034498914793223696 0.0084815467730133352 0.0031703296030085024 0.007752515222811434 -0.0021135429309570865 0.0025110996444525401 -5.828216462720636e-05 -0.0031886144151403941 0.0053259544656330728 0.0098951358414398078 -0.0018360836657585042 0.006681705222107529 -0.0029651553979110996 -8.6938376448242262e-05 0.001046850699405272 0.0065683428360854453 0.0015816783689996873 -0.0039531175369201411 -0.0035001022513339096 0.0046678020587710882 -0.0057941696978108361 -0.0056707138634951998 0.0022432733517396093 -0.0067815825539910583 0.0030304309851335669 -0.00038690194536587428 -0.0039960169995574817 -0.0026988061171288416 -0.0047384450157185887 0.00016655042697815079 0.0049040925837434985 0.0076702619303064953 0.0073765712504770351 0.00026741063210928943 -0.0069716931521637991 0.010197559377468222 0.0044300609546282345 -0.0063694898216830999 0.0020634641459659911 0.0069062313408976813 0.0061658220019737801 0.0042973918899346861 7.5235690124601882e-05 -0.0088971773338546462 0.003641885167215328 0.01085670549049551 0.0066647403558048463 -0.0037427113050691324 -0.00033206938564407922 0.0030796334806665734 0.0079019934285454174 0.0085867893587303519 0.0050184136393812738
leaf_weight=8.1004092146758904 22.183540697820717 12.507406026183157 16.581057192437584 3.7374199938785742 4.9842061943491052 19.283565559395356 2.5287463194108559 3.5990441585308863 14.625544010981686 5.755327455175574 1.509572814538841 7.3470456924114833 4.5731957783864372 10.018232091562821 2.4536135508096777 5.1707755401148461 8.1392818141612207 4.6327030711690886 4.7523774717410587 2.6063022199086836 27.728128437622214 5.4689678128052019 3.7680964883475099 15.954752394696692 18.67636633315124 29.31039019828313 5.1311865335446774 125.60173714120174 157.0514899341797 5.3091023438319143 2.7293622520519412 59.459180079225916 5.5870669422438359 7.6872283554694141 21.539523634884976 91.43290530476952 7.108878084429306 49.012523455923656 5.5393570983142117 303.21230526165164 6.433742301829624 56.288590464624576 22.837748172751162 18.407735658198362 16.598403408075683 15.211151160096053 13.248204575007547 6.0706544985587234 34.40200179987005 1.8642074916860991 11.58346510704723 183.77557592064841 6.2371662012010329 29.013558620878023 55.057342710701057 276.20024911974906 199.14944445004221 16.373894841846777 10.731312381743917 7.2100724422780313 21.033289299433818 4.0157827422954169 12.986409627832471 6.4496926774736485 8.2899069219129142 4.849028738273776 4.1247697857615995 2.5177738523925655 2.8601094450568771 19.300097202707548 13.010098663275128 16.651637682603905 3.0066825819376382 2.8850944489822723 2.3243831889121793 8.2605792503454705 4.8741616423940313 6.5519214823434595 1.0225851177820002 18.477388427418191 14.994908975670112 11.992602994316263
leaf_count=792 6537 329 506 494 1158 6850 682 828 1200 287 320 719 596 384 500 144 503 151 1883 231 8906 698 836 2318 4379 5729 384 39342 39588 902 296 7060 301 809 3025 14585 558 3452 250 139217 287 27997 7840 6321 1272 1978 2593 1315 3419 444 4362 24735 1739 3321 12434 150612 96577 7884 657 629 408 478 2280 2911 556 891 849 430 216 2020 427 4043 602 648 213 519 442 276 120 372 506 468
internal_value=0.000193082 0.00127565 0.000942393 -0.0015717 -0.00206156 0.00026313 -0.000293516 -0.00246989 -0.000708584 0.00182516 -0.00272824 0.00295696 -0.00300678 0.00287693 0.00472367 0.00167179 0.001614 0.00170456 0.00101836 -0.00173954 0.000720473 0.00739287 0.000121081 0.00150837 0.00267126 0.00253547 0.00397866 -0.000938654 0.000107717 0.00388044 -0.000899792 0.00441954 0.00132602 0.00286882 0.00189864 0.00101634 0.00315182 0.00372763 0.00402261 -0.001369 0.000977155 -0.00108806 0.00133107 -0.00197613 0.00409627 4.89547e-05 -0.000993989 0.00227344 0.005837 0.00559097 -0.00366068 0.00205948 0.000596801 0.000317733 0.000792161 -0.00341757 -0.0034526 -0.00312082 0.00576629 0.00431239 0.0055903 -0.000723749 0.00194809 -0.00153981 0.0075652 -0.000609364 -0.00279021 -0.00423509 0.000152726 0.00390471 0.00702644 -0.00189413 -0.00443226 -5.69146e-05 0.00616967 0.00398567 0.00227795 0.00240947 -0.00559279 0.00653941 0.00792476 0.00700208
internal_weight=2289.57 1419.08 1321.05 870.49 757.274 987.95 728.371 682.62 644.06 259.578 635.555 333.1 578.967 84.3111 50.9986 74.6537 253.823 113.217 47.0651 23.9644 64.0139 10.6397 56.5884 41.4059 34.6311 298.041 91.2375 605.149 176.335 23.1007 42.7788 86.1063 108.584 38.9112 206.804 121.372 85.4318 78.3229 27.0789 428.814 102.997 102.107 27.4109 74.6963 31.2239 33.3125 28.4594 197.986 44.4202 18.3483 15.1825 189.846 96.5633 92.8258 84.0709 476.859 475.35 21.3581 98.0316 45.5266 34.7953 55.8374 17.0022 40.0494 13.599 32.5772 6.57838 8.75494 94.293 78.7593 52.505 38.8352 6.77478 4.7493 4.85313 21.2352 12.9746 13.762 7.47228 35.0584 39.4949 26.9875
internal_count=673820 321650 317950 352170 333013 279074 238896 317294 228278 40178 303588 38876 290263 10618 5152 15719 39891 19157 13706 9273 14877 842 13325 8135 6697 37998 10183 224997 46438 4433 13124 9799 19006 3281 27815 18076 9739 9181 3275 178559 18705 42754 8436 34318 2472 5466 4571 26553 3803 2550 5190 26050 18418 17924 15755 247509 247189 9042 3700 1970 1313 13338 2758 12828 1458 9797 1349 2169 14801 9080 1730 10580 1438 1092 895 1753 1234 905 3031 878 1303 974
is_linear=0
shrinkage=0.00740447


Tree=4
num_leaves=83
num_cat=0
split_feature=3 13 14 11 27 3 11 13 5 28 13 32 20 22 22 14 25 27 13 27 13 11 11 3 18 11 22 3 13 13 28 36 11 13 3 12 5 27 11 22 12 13 27 22 11 5 25 14 25 27 22 14 3 20 3 4 27 22 32 20 20 13 18 25 11 4 12 3 5 27 12 4 11 13 18 25 11 20 32 32 4 36
split_gain=182.659 79.4181 58.3367 38.4136 24.1092 18.9966 18.4451 13.806 12.0031 9.24544 8.31109 8.14761 8.01101 7.65234 6.47005 6.2818 6.0032 8.43901 5.80694 5.34732 12.0925 5.7574 5.17997 4.92473 6.23892 6.60098 5.14235 4.85589 4.43526 8.39204 6.26303 4.41583 4.32201 4.4988 4.29645 3.90546 3.85856 3.78833 3.72234 3.66533 8.28274 5.16579 3.45229 3.44887 5.10482 7.92845 3.42674 4.05732 3.40371 5.29318 4.4231 3.31229 3.30064 4.75746 4.26051 3.25995 4.23152 3.1347 3.1318 3.07947 4.68878 4.15621 3.90385 3.06536 3.03012 4.79828 3.0425 2.95731 3.90158 2.92399 4.17782 3.3656 2.91907 3.25213 2.86924 5.35953 2.75873 2.70555 3.70724 2.69054 2.68224 2.67749
threshold=-0.76337533147437187 0.98151196246471994 1.0602484055986128 -1.4625756963012446 -1.0000000180025095e-35 -2.171178685330577 -0.91805623962301619 -0.49779091763804972 -0.48614291846752161 -0.27407477019458071 -1.0284727615961848 -3.1342188880545439 -0.86489513516426075 -0.14505634258955366 0.4522377707431976 1.9958277874195629 -0.82153455123013297 1.0961528067986477 0.5028310455864341 2.3199847038375228 -0.38143711764414984 0.062533836273089533 -0.063488892103410327 1.4113382703743611 0.41215966600762155 -1.7562766635689628 0.47780447707272494 1.3610594686823323 4.7173936393289191 1.5612052066402287 2.6292606914043479 -0.66613871766790622 -1.5126876987032432 0.30652221905999849 -1.8412050188001021 1.3280753800346237 -0.47907331585884089 2.3199847038375228 -1.4154372078032911 0.82531930799312858 0.25328198981330891 -0.66510269424550972 1.4902600707065876 1.6795826488046808 -0.68711359869049649 0.01326886471360922 -1.3478211193776382 -0.36299187615875583 -0.56750536989127265 -0.062824796469011082 1.0830495009499952 -0.045970598973179184 -0.21053442649694212 -0.10872892290353774 0.73137864159666754 -3.768739450707701 0.37491583694997849 -0.63488518122138204 1.1184319639559526 -0.27663598954677576 -0.066178668290376649 0.59764290870736148 0.093598290071694068 0.47085580048105113 1.5702282602172257 0.58736193059662645 1.593796013282289 0.66537290170510588 -1.1140587925910947 1.4902600707065876 0.78146192411404625 0.058991374390407005 -1.4154372078032911 -0.91869894942926711 0.53299429763334161 1.4803230157609317 0.72960668752249469 -0.097536686807870851 1.1367365196861079 1.9337157287045741 -2.8986821384685801 1.2045302931426149
decision_type=2 2 2 2 2 2 2 2 2 2 2 2 2 2 2 2 2 2 2 2 2 2 2 2 2 2 2 2 2 2 2 2 2 2 2 2 2 2 2 2 2 2 2 2 2 2 2 2 2 2 2 2 2 2 2 2 2 2 2 2 2 2 2 2 2 2 2 2 2 2 2 2 2 2 2 2 2 2 2 2 2 2
left_child=5 2 3 16 57 28 10 9 48 77 -7 14 -9 -10 69 34 36 52 -17 21 -21 22 -6 24 25 -13 64 39 29 35 55 -26 59 79 -14 -1 67 -19 -35 40 -15 -41 -36 44 45 -31 51 -48 -4 -50 -51 -27 53 -18 -54 -30 -57 72 -59 61 62 -12 -61 -62 65 -25 -67 68 -2 70 71 -3 -5 -74 -33 -76 -46 78 -8 81 -40 -34
right_child=1 11 8 4 19 6 7 12 13 -11 32 23 15 27 -16 18 17 37 -20 20 -22 -23 -24 26 31 46 -28 -29 30 43 -32 74 33 38 42 -37 -38 -39 80 41 -42 -43 -44 -45 76 -47 47 -49 49 50 -52 -53 54 -55 -56 56 -58 58 -60 60 63 -63 -64 -65 -66 66 -68 -69 -70 -71 -72 -73 73 -75 75 -77 -78 -79 -80 -81 -82 -83
leaf_value=0.0049087941634231623 0.0074861935005745258 0.0096760857324788771 -0.004732595505814923 0.012439409370986499 -0.0022588705404171113 0.012433532959353073 0.0063561496828238766 0.0082314664972601894 -0.0073368108861766026 -0.0021572363928147788 0.006697379011708012 0.0053797764113533812 0.0014300236843657009 -0.0014641356345065346 0.00060638224793176576 0.0055559846991820655 -0.0028591139222996303 0.0052430397055677888 -0.0028287404519140107 0.0096596986158160921 -0.0020579037630050036 -0.0032926751176545559 -7.3758600932932546e-05 0.0072439882015524698 -0.0033616895459622912 0.004968941208140505 -0.0024430316074398233 -0.0030530041753482145 0.0046651624625821181 0.0033225025444617341 0.0016737275785924 0.0099035627348709864 0.0032579745258326559 0.0045903678215538646 -0.0026557654379613777 0.00065073199615709625 0.0085348892668850301 -0.0016790934147262356 0.0048685462737082007 -0.0005434352433807332 0.0059453297101389356 0.0056175045622842779 0.00067361217414381989 -0.00031939279482287982 0.0063546510644325351 -0.0041011999167810433 0.0032717946225575096 -0.0023524715251374861 -0.0079103681723914215 -0.0046437809882732195 0.0065056559695932008 -0.0028492957266536795 -0.0038744701642900331 0.0033064389981902337 0.00090802335158618344 0.0052033554593791838 0.0099148948144147427 -0.0047402699255100636 -0.0024739788812439953 -0.00024387728132454662 0.006164109677553241 0.0015268655536794281 0.0042780772265793056 0.0019081575839387901 0.0093143185117534038 0.0031004723170502332 -0.0042599684140803753 -0.0022663317928839962 0.0012730850825349786 0.0086674222853696178 0.00095722887842760211 0.003914424007675779 0.0082345283906649948 -0.0031042635767686202 -8.8668156694983702e-05 0.0067115822319950653 0.0019261578206103975 0.0073579743498117627 -0.0021276827528964736 0.0086585210538489953 -0.0044674220843760005 -0.00069579372253540986
leaf_weight=189.25999325636076 8.7023243794683385 10.677781471080381 13.782889288821027 0.81365049211308615 191.24657004469191 5.506253176892641 7.097596083040111 5.4397179416264398 3.5682449675514354 10.202602155943167 37.290988106251461 10.67001704580616 23.253285563114332 17.824763335462194 14.870835329900727 14.210607886110667 11.601261324336521 19.730970449745659 6.6419870165409511 6.8506501445081112 16.351932574907551 175.56314355976065 86.362971203765483 13.237050769937925 4.3052532784058704 9.3843157519877405 5.945154486631508 5.5921886505675493 27.481953589158366 23.888696086505661 17.205277569708414 4.8003652244806316 43.112399722420378 4.4203424066072357 94.965083300950937 12.610080034006385 6.8163047886628183 5.5485686614993019 1.9528841777937493 8.3946760700491705 15.426854315242961 66.609858904936118 20.804930492333369 25.973493709258037 22.943890477559762 11.773230948601848 8.1118362879205943 52.688109170587268 3.0408989787683813 2.7323436619481054 6.8020545134786516 4.3426460713963015 33.121007859328529 16.787514175404795 14.754573232436085 18.069478906516451 24.891413639474194 409.60572208181839 36.455292911821743 27.349287472199649 31.089081606594846 11.066313600866122 16.947207560151583 13.25322614260949 7.126184685912448 12.198853439447705 4.1161804557777932 6.0409721400355911 15.288865999493284 17.005503051914275 10.241444930026772 11.638164449075701 1.5424921895028099 13.645277942006938 11.509745948074853 14.166213109740054 11.645652342267566 22.724950883624846 4.6839433309505694 4.042040459054987 12.294082090811568 11.993135138764044
leaf_count=9969 510 374 3252 71 89434 94 780 415 1097 2261 1713 524 5144 3605 696 1138 2761 1615 948 661 5793 94600 33366 875 754 1133 941 591 538 836 512 506 5991 538 42506 928 592 442 175 805 2152 6050 5088 1420 1291 496 1076 13441 1046 760 759 1113 14124 2523 4965 621 533 248966 17980 1782 1276 795 944 572 354 1313 329 523 1731 271 533 823 325 7946 1488 682 799 1758 467 252 3315 1654
internal_value=0.000221256 -0.00135794 -0.00210592 -0.00269742 -0.00323448 0.0030226 0.00195293 0.00038273 0.00232404 0.00403329 0.00344966 0.00266328 -0.000604408 0.00333778 0.00489177 -0.000905215 0.00094419 1.49494e-05 0.00288409 -0.00206553 0.00140078 -0.00224306 -0.00157918 0.00178005 0.00101171 -6.68578e-05 0.00394221 0.00367258 0.00421588 0.0037851 0.00568068 0.00365432 0.00321924 0.00182507 -0.00147377 0.00464293 0.00350422 0.00372273 -0.00134314 0.00402024 0.00197271 0.00492763 -0.00205723 0.00198518 0.00283757 0.000870976 -0.000847003 -0.00160167 -0.00219087 0.000593017 0.00330784 0.00249377 -0.00121376 0.000785971 -0.00240006 0.006659 0.00793383 -0.00443958 -0.00455511 0.00401095 0.0031903 0.00551466 0.00148562 0.00489265 0.00497788 0.00393127 0.00124192 0.00236153 0.00352786 0.00617705 0.00487544 0.00667248 -0.00121741 -0.00195091 0.00464628 0.00366231 0.0048644 0.00586437 0.0029812 0.00282539 -0.0031859 0.00239703
internal_weight=2263.73 1447.64 1220.6 1076.83 938.438 816.085 430.342 210.025 143.775 44.7091 220.317 227.036 165.316 117.417 64.4337 159.876 138.392 101.544 20.8526 476.375 23.2026 453.173 277.61 162.602 119.979 85.1969 42.6234 113.848 385.743 298.095 87.6481 34.7816 214.811 77.8149 139.023 201.87 36.8485 25.2795 18.6673 108.256 33.2516 75.0045 115.77 96.225 70.2515 35.6619 74.5269 60.7999 26.3582 12.5753 9.5344 13.727 76.2644 28.3888 47.8756 70.4428 42.9609 462.062 446.061 136.996 88.6388 48.3573 44.2965 44.3423 36.6783 29.5521 16.315 30.0322 23.9912 49.5629 32.5574 22.3159 16.0014 15.1878 30.4763 25.676 34.5895 34.5065 11.7815 59.1476 14.247 55.1055
internal_count=673820 576271 549045 528928 499142 97549 79606 60505 20117 5266 19101 27226 55239 14300 2697 54824 29786 26430 2086 223854 6454 217400 122800 24529 20717 17287 3812 13203 17943 15739 2204 3430 19007 11925 52738 10897 3356 2057 4028 12612 5757 6855 47594 4842 3422 1332 16763 14517 5817 2565 1519 2246 24373 5284 19089 1692 1154 275288 266946 7082 4574 2508 2726 1848 2871 2517 1642 2764 2241 2001 1730 1197 8342 8271 2676 2170 2090 3005 1247 7897 3490 7645
is_linear=0
shrinkage=0.00740447


Tree=5
num_leaves=83
num_cat=0
split_feature=4 14 10 11 26 1 27 12 10 33 10 26 2 14 36 25 10 33 14 6 10 2 4 33 33 4 26 2 6 27 10 33 36 39 4 5 36 12 6 25 4 36 2 4 12 26 6 4 39 36 1 1 25 26 25 33 1 25 27 5 11 25 26 6 10 39 2 12 12 33 25 39 36 12 11 5 10 39 27 1 2 26
split_gain=189.512 76.0292 63.2012 60.5194 34.9283 19.5791 17.0084 13.5166 9.39751 11.4135 7.91355 7.84979 8.69345 8.70731 7.41813 6.71281 7.05833 6.64995 6.53326 6.09031 6.01085 6.38661 5.8802 5.71874 5.669 5.50621 5.45484 5.27679 5.20561 5.15588 5.05807 5.94305 4.80231 4.67681 4.62538 4.53218 4.31961 4.97102 4.31348 5.76598 4.30677 4.84311 4.30042 4.2232 4.16789 4.07279 5.38781 3.95409 4.84536 4.46005 3.93812 4.3923 3.81181 4.25807 4.80605 5.01696 4.77396 4.53875 3.8216 3.7947 3.71413 3.67203 3.69462 3.66117 3.65471 3.52583 3.46284 3.25305 3.23689 3.1455 3.06669 3.31877 3.06177 2.98608 4.61431 3.62417 2.96102 2.92969 3.57381 3.11604 2.75783 2.72509
threshold=-0.60427730207357644 1.0602484055986128 2.1736716987711104 -1.4396954159624948 3.0206094014352778 -0.11329733927717828 1.3926663147734193 -1.0853193637318357 -1.5160092280419184 -0.038719957694411271 -1.702977410673763 3.0206094014352778 -1.3523349575612891 1.7749554434441328 0.0048270136525814973 -2.3405569449377244 -0.75104972479789467 -0.072968315333127962 2.7143022545369835 3.0767942721325996 -1.2659479167316794 -0.8905615299859897 0.41749542334788176 0.0098071657121181505 -0.086265031248331056 -0.46828739045545748 -1.4086746787607225 -0.87038213782511076 -0.49679274784544286 -0.95030692969693464 3.5310963893391389 -0.065713860094547258 -0.37205530263144027 -0.79993339494051285 0.48019834486107832 1.9663699269294741 1.0850499096599602 -1.310412579154314 4.0209395431816803 -0.14145977166942811 1.3372998771633591 0.065019897545698077 -1.0525244192569558 -0.77284548901896555 0.46261839151009848 -1.2493473479494608 1.564223782077186 -2.0314095806460268 -0.63643302013830805 0.25978922536010368 -0.21669516593334584 1.3722370375217636 -1.3478211193776382 -1.1865800572154903 -0.30406332209520309 -0.074945487082004533 -0.16937191592632964 0.21856236062798637 -1.1471284456008759 -1.6589462757110593 0.26911077766467068 0.86925476106887722 0.49993078000633767 -0.40681715922245754 -0.79776216824857271 -0.51829321462084277 3.476376560117902 0.12625621175001159 -0.98685541260083476 -0.33361855149269098 0.62620184474117335 -0.37515673694372709 0.0048270136525814973 4.0157685923805984 -0.63926882869890844 2.5345861911773686 0.17177535333510324 -0.39529979250859665 -0.13634514521178606 -0.60451976182311051 -1.559745970465064 0.11719639507745196
decision_type=2 2 2 2 2 2 2 2 2 2 2 2 2 2 2 2 2 2 2 2 2 2 2 2 2 2 2 2 2 2 2 2 2 2 2 2 2 2 2 2 2 2 2 2 2 2 2 2 2 2 2 2 2 2 2 2 2 2 2 2 2 2 2 2 2 2 2 2 2 2 2 2 2 2 2 2 2 2 2 2 2 2
left_child=6 2 3 15 5 10 7 18 9 -7 27 12 43 17 30 -2 29 44 26 -12 21 -3 23 -23 -10 65 72 -5 36 -17 31 80 38 -13 -31 50 47 -38 39 -30 41 -6 -27 77 -14 -33 -47 -8 -49 64 76 -52 -22 -54 56 57 -55 -56 -57 67 -15 -16 -63 -61 -50 -18 -19 -34 -43 -65 -41 -72 -1 74 -35 -76 -28 78 -9 -79 -4 -58
right_child=1 20 14 4 40 8 28 11 24 -11 19 33 13 60 61 16 25 66 -20 -21 52 22 -24 -25 -26 42 35 -29 32 34 -32 45 59 73 -36 -37 37 -39 -40 70 -42 68 -44 -45 -46 46 -48 48 49 -51 51 -53 53 54 55 58 81 -59 -60 63 -62 62 -64 69 -66 -67 -68 -69 -70 -71 71 -73 -74 -75 75 -77 -78 79 -80 -81 -82 -83
leaf_value=0.0045477795085053707 0.0099811734613406648 0.011470362678205117 0.0029392469168735189 0.0091160077820216356 0.0062455658949143716 0.0090624272292804016 0.0058710185680994134 0.0093262068568022872 -0.00058921665703245822 -0.0019887300807701859 -0.0050451994979605055 0.0099504638134154302 0.0028978984012382886 -0.0016250003098170753 -0.0013388155362903744 0.0092204089140660341 0.009519480565415659 -0.0018557206480736891 -0.0037113475383365197 0.0042406204896252688 -0.003741936685966344 -0.0048484976100625849 0.0083912906931480728 0.0041929375405166279 -0.0031977744355095703 0.0018194278486071025 0.0095658144925021525 -0.0043081773355651337 0.0023115379270431421 0.0032891202290014749 0.0063024270597038957 0.0073375579276207499 0.0082444855887647585 0.006234659496803456 -0.003542533919952226 0.007870294009106658 0.0095355003113999186 0.0046116030022930327 0.0075286328445570358 -0.0071971336669344032 0.0086651600472785872 0.0079996244817143892 -0.0015573470601691632 -0.0031355858449986793 -0.0033066298280646162 -0.0044300304817767528 0.0055818956060182398 0.0066597914038524532 0.0067494479635355226 -0.0047308220644501787 0.0017958132708489674 0.0057814337217710378 0.0073396499422418073 -0.0066514940864322242 0.0095564022389158371 0.0083357854789642919 -0.00040857966566606969 0.0012770518728853688 0.0017672733619643948 -0.0020910432400291085 0.0054537107523971668 0.0081118829678223248 -0.00027519734496864596 -0.0012063171846307336 -8.662284578816471e-05 0.0014484987921362089 0.011051376814358166 0.0031579848445137271 -0.0033158757882456916 0.0038474809208582012 0.0066072163066599786 -0.0049495583988164961 0.0097241299740526005 0.0073566388246482815 0.0033350120732486442 -0.0068294967167837955 0.0023049194039880499 0.0078851842409762667 0.0035473507560730326 0.00064192562899470929 -0.0053319474576247064 0.006337559585913255
leaf_weight=12.987601404602175 4.7846345391590139 8.3269160453928617 3.3821578956558369 3.6763908254215494 9.6146833768580162 8.1183955361484568 37.242752135789488 7.529598686611279 52.146887261827942 13.883377248770556 426.09088821610203 7.0526980336871956 32.169948251044843 5.198164455068766 22.974293129751459 6.956107326084747 4.9465330463135615 123.19344472876401 6.4573976242681956 3.9048663317225865 5.3199247007141812 5.3729461164621233 11.163976358133366 13.389186818327287 369.49429502202838 29.320715434849262 7.9552503846352902 2.8466227078461079 25.993273968750145 41.554378451663069 40.320273895864375 12.492441113863604 18.592740221822172 5.4198778132558836 6.2472946374327867 10.916681801900266 22.896246679709293 22.141436653968412 5.1952432164689517 6.744797900435513 9.5477484944276494 1.694354151084555 70.113588091364363 6.0100041842088094 7.2753407576237796 5.146413341630252 6.8908178398851305 10.326917987084014 6.8517235937761169 6.3457982687395988 93.416397619264899 18.106943571474403 9.8107409302610886 5.624250844120982 10.775404001295103 5.223051040316931 14.350316468800886 5.4857680509448974 69.618694962962763 6.1586433424963607 18.540226399956737 5.5770474331802671 5.9420520028215833 6.9583188958931705 11.43853563279845 7.4392352558206749 1.1494434162159439 10.986868747218976 7.5954891230212489 219.8858554737526 2.4767301324754953 3.02668422809802 12.153331262466962 5.7418808466754845 3.2734795071301033 4.6542205322766677 5.0410381448455155 3.7537708455929559 26.723014449467883 24.643667355761863 6.3619946119142678 4.2543300757533862
leaf_count=673 86 165 343 184 700 757 1119 553 20677 4792 268010 190 6165 998 4379 787 353 46546 489 927 1205 695 777 855 192375 2359 529 1245 4268 6587 1826 1149 499 101 2167 367 282 988 158 1344 616 84 18177 1841 2365 1447 699 705 341 612 9160 1184 688 2523 645 598 2601 599 10338 714 1060 276 585 467 1239 805 34 868 2288 16952 286 691 325 175 673 720 1029 399 2610 5726 1291 715
internal_value=0.000230499 -0.00149978 -0.00215979 -0.00270235 -0.00346356 -0.0037246 0.00292279 0.00191941 -0.00262902 0.00208796 -0.004838 0.000931526 0.000537013 -0.000288208 0.00321133 0.00133368 0.00108513 -0.000895752 0.00358902 -0.00496081 0.00315167 0.00573317 0.00413587 0.00160237 -0.00287522 1.83154e-05 0.00388276 0.00325402 0.00398798 0.00326321 0.00452437 0.00243187 0.00347947 0.00479665 0.00239574 0.00329442 0.00531504 0.00711541 0.00119804 0.000337303 0.00461052 0.0025613 -0.000561369 0.00279123 0.00175288 0.00437553 0.00129933 0.0041917 0.00240214 0.00061636 0.00289303 0.00244315 0.00239455 0.00265562 0.00225694 0.00303649 -0.000673199 0.00676493 0.00222604 0.00385677 0.00390259 0.000371065 0.00378343 0.00353938 0.00247296 0.00467398 -0.00173618 0.00635607 -0.00124921 0.00369235 -0.00385037 0.000246989 0.00705114 0.00289113 0.000968172 -0.00262932 0.00675146 0.0033602 0.00481848 0.00160033 -0.00245851 0.00113281
internal_weight=2230.41 1357.78 1189.06 1079.98 908.614 880.162 872.626 449.363 443.643 22.0018 436.519 282.329 256.187 187.527 109.087 171.362 166.578 163.788 167.035 429.996 168.716 38.253 29.9261 18.7621 421.641 111.82 160.577 6.52301 423.263 54.7578 74.5941 34.2738 306.019 26.1422 47.8017 135.436 117.243 45.0377 43.4367 38.2415 28.4523 18.9045 99.4343 68.6601 39.4453 24.5297 12.0372 72.2057 34.963 24.6361 124.52 111.523 130.462 125.143 115.332 91.1029 24.2289 16.2612 74.8417 262.582 23.7384 34.4934 11.5191 233.003 18.2903 12.3858 124.343 29.5796 9.28984 226.844 12.2482 5.50341 25.1409 19.0895 13.3476 7.9277 12.9963 62.6501 34.2526 28.3974 9.74415 18.6046
internal_count=673820 558375 535971 523976 492655 488967 115445 83912 218601 5549 270366 70156 68297 57168 11995 31321 31235 55110 13756 268937 22404 2492 2327 1550 213052 21694 13267 1429 31533 9541 6755 4929 26247 1859 8754 12269 5286 1270 6747 6589 3688 3072 20536 11129 8530 3295 2146 4016 2897 2192 11902 10344 19912 18707 18019 12180 5839 1244 10936 19500 2058 5240 861 18133 1580 1158 46580 1367 2372 17419 2321 977 998 1669 1494 1393 1558 9288 3163 6125 1634 3316
is_linear=0
shrinkage=0.00740447


Tree=6
num_leaves=83
num_cat=0
split_feature=4 18 10 6 2 2 4 1 22 6 18 33 32 2 39 33 32 12 4 2 32 12 18 27 39 12 31 32 39 34 6 6 28 39 39 1 6 12 27 12 34 4 39 1 33 6 33 12 1 6 6 31 10 31 27 12 6 33 2 18 27 27 1 31 32 6 31 34 10 32 22 31 6 32 18 27 33 4 4 18 31 1
split_gain=212.406 89.7544 83.2649 37.4801 36.4678 20.9026 17.5268 16.3528 12.2208 11.2268 11.1388 12.8849 11.5305 9.84242 8.93902 8.05529 9.53969 7.30378 6.31594 6.01559 5.89383 6.09591 6.4578 5.88129 5.90767 5.84544 5.60192 5.50383 5.40189 5.07281 4.93104 4.88726 4.80704 4.50687 4.41885 4.39312 4.26889 4.18833 4.12271 4.10804 4.10781 4.47411 4.28521 4.01342 5.44341 3.97603 4.80815 3.88244 3.97593 3.8691 4.51318 3.74097 3.68792 4.24732 4.02934 3.57689 3.56837 5.13725 3.56223 3.55712 3.48494 3.42216 3.97828 3.39893 4.12946 3.16669 2.97254 2.92554 5.17558 3.16038 2.83018 2.73549 2.80918 3.11608 2.7304 2.72961 2.65611 3.34354 3.74312 2.62125 2.60956 2.98347
threshold=-0.60427730207357644 0.90408154396817897 2.1736716987711104 -0.98148016923413217 2.2036824849919916 -0.41395214996049007 -2.2822062530009579 -1.0000000180025095e-35 0.15192813176016642 -0.61573040473743268 0.84819057936521192 0.45143362879753118 -3.1342188880545439 -1.4463762297923106 -1.898743444810046 -0.069223344326019273 0.60242183482257061 -3.7522388459915055 0.32657056832131587 -1.3100977782720753 2.2511199337125309 -0.31858057704434029 -0.10949407932825148 -1.3388170520760141 -0.77179410463306997 -0.79830790242549921 0.40521410336329966 -3.1342188880545439 -1.3868973113341683 0.0038292648051441312 1.9223513015705607 -0.033036950811555034 0.10716310073872636 -0.27385322788248362 1.3441074975184473 -1.0000000180025095e-35 3.0767942721325996 -1.201982783068303 -0.30168978793323903 -1.5023276183993359 -0.013305664294899055 -2.0314095806460268 -0.81011037307210498 1.5959468364282923 1.0672437548637392 2.4045722881944891 -0.011034580878913401 -3.0039169350375388 3.0827217662831226 -0.73785700801977272 -0.1517220430949395 1.3653288470375082 -1.8196859979041138 -0.066691811337045423 1.8968921660951434 -3.7522388459915055 2.7965046034709178 -0.02082300744950771 -0.83244826524001547 0.061612599745565273 -0.75516318267173155 -0.98028657252154494 2.0076739287734569 -0.59884284005797339 -1.7547803698994417 1.7547130483981273 0.057957995683022838 -0.075701833501640989 -0.045343963163771532 0.94537270722161748 -0.11239195924808081 -1.011295015572405 -0.50361559841949799 -1.3902353510888681 0.66729184662694996 0.024500030966409434 0.14603400230407718 -1.6853290063301094 -1.3995844501068124 -0.12704766549327765 2.6757700754582774 -0.63711569716122252
decision_type=2 2 2 2 2 2 2 2 2 2 2 2 2 2 2 2 2 2 2 2 2 2 2 2 2 2 2 2 2 2 2 2 2 2 2 2 2 2 2 2 2 2 2 2 2 2 2 2 2 2 2 2 2 2 2 2 2 2 2 2 2 2 2 2 2 2 2 2 2 2 2 2 2 2 2 2 2 2 2 2 2 2
left_child=6 2 3 5 7 18 20 36 29 26 11 12 70 31 -9 16 49 -15 33 -16 21 22 -1 -7 25 -25 28 37 -8 -3 -6 -14 -26 59 -20 80 39 -4 -37 -5 42 -42 -12 44 -13 46 -39 51 74 -10 -51 -24 -30 54 -54 -40 71 -58 -22 -2 -38 -32 -63 -43 -65 -31 -55 68 69 -28 -11 -23 -73 -74 -49 -52 77 -69 -79 -35 81 -29
right_child=1 8 27 4 30 23 9 14 15 10 40 43 13 17 19 -17 -18 -19 34 -21 58 56 47 24 32 -27 67 35 52 65 61 -33 -34 79 -36 38 60 45 55 -41 41 63 -44 -45 -46 -47 -48 48 -50 50 75 -53 53 66 -56 -57 57 -59 -60 -61 -62 62 -64 64 -66 -67 -68 76 -70 -71 -72 72 73 -75 -76 -77 -78 78 -80 -81 -82 -83
leaf_value=0.0071359099772567271 -0.0012012701356657106 -0.0047743435218262709 0.0016570230346856709 -0.0013917846317993859 -0.0023063162095061434 0.0068678638441003982 0.0089158283146118424 0.0086467526029384203 0.0078917637126290699 0.0082126764631388349 -0.0036020694206077455 -0.0054047300454942654 -0.0016595085695698172 0.0098737292592385277 0.00030299672537154054 0.0029701878358732977 0.011062179976835 -0.0013124967564283805 -0.0045681279231452113 -0.0032783470648330773 0.0038382362363939978 0.0061659454414130172 0.0041534110950957846 0.0050728949487749836 -0.0042398554958834661 -0.0029291737476295127 -0.00052365774392991058 0.0022592012354145569 -0.005312620955914958 0.00020428649836401591 0.0091938219261481578 0.0030194950512847218 0.0025194592491963068 0.0074160321882644148 0.0059004090763958546 0.009248259913450161 0.0076655793684614606 0.0043827763880475504 0.0084203487549937596 -0.005204233886029308 -0.0012903161621383601 0.008511872773475003 0.0030145734773948949 0.010589476530475787 0.0088046491893448361 0.0034764521211094719 0.010972301359342657 0.0037057496023039935 0.0053258885317119253 -0.0039204388788842172 0.0074178927725652042 0.00842679271625754 0.0023032164892803604 -0.0052081709809400729 0.0064726426309733567 0.0015204803910801538 0.0011116016148957886 0.0076195350660148344 -0.0023098051278621101 0.007917321732914059 -0.005786770039119051 0.0018946009718694618 0.0096137269398933311 0.0091567040384368525 0.0029874247348822373 0.010742998872846582 0.0011336680053401925 -0.00073153348649047814 0.010546718447274868 0.0076447630612021568 0.0029698659055623698 0.0073687814686806356 0.0045843997705830603 0.00062082624216789923 0.00056681212190381699 0.00025722218590486023 0.0089073282855594415 0.0091746481997119524 0.0034234733832751449 0.0030143945633011116 -0.006658123502256065 -0.003748273855489381
leaf_weight=69.086008590762503 9.5716965286992473 13.068602402054241 15.072951069916597 16.095998606295325 7.0728512825153294 3.9233880126848808 6.904362099536228 3.644083367456914 8.8944474312884285 10.623967458494009 6.6834584028983945 2.5664386827847911 15.239098756894235 3.2626665444113305 27.819819599069888 109.39679981465451 17.025413147290237 165.02561718499055 7.4608681752870307 337.74132200681197 9.4901975247194077 8.9775229259394091 23.051672279892955 10.047975086636145 55.611372606712393 9.9682628483569697 5.2251530846406258 14.192440338723831 3.5121557750389902 8.4006040780805034 6.7832487858249833 62.043721026420826 6.4311092347197691 26.016450221068222 3.1398398316232488 5.5737416546326122 2.6309558163629845 10.74772130465135 4.7317819221061646 428.51200231796247 5.6088548619300118 15.889526786515487 27.178105170314666 8.9271907191141491 3.4810670904698782 17.23456520907348 14.002264203038067 38.129281348752556 45.399005030107219 5.1545044878148518 6.855214030889325 21.969019210606348 52.553273847704986 5.3890774106839698 16.777019823959563 31.955680874874815 10.255974072089886 18.965741443273146 11.338579038478199 3.10536656808108 1.761373552319127 20.672943193028917 4.4519501652102909 7.6670625243568749 26.651769633463122 1.9217574426438648 16.322159783740062 7.8175683193258001 12.997457606426904 5.1520154250029009 12.090951196878448 4.6873785567586301 13.697299710998776 52.878292136272648 25.291471999255009 5.0952281212084927 6.0366185888415194 7.7618610570207194 31.093732155917682 10.407608556299239 3.3965308282058677 6.6575246600550608
leaf_count=2501 1723 4822 576 6268 2812 629 232 494 576 328 688 895 3237 124 7084 14041 497 58377 2045 179439 343 697 508 1518 27281 4511 593 2821 397 2232 314 7682 1316 2693 213 325 448 584 118 279068 463 1159 3330 433 405 470 365 1890 1122 692 656 366 8048 809 785 3898 524 719 549 212 596 2091 275 369 2847 167 1800 437 430 247 583 228 1038 5328 1310 556 282 359 2983 1060 706 2183
internal_value=0.000266942 -0.00164706 -0.00241505 -0.0031217 -0.00371182 0.000350336 0.00302508 -0.00404519 0.00327331 0.00219898 0.00146928 0.000749144 0.000375946 -9.08162e-05 -0.00289065 0.00403811 0.00675283 -0.00109546 0.00371635 -0.00300573 0.00431247 0.00455191 0.00525472 -0.00198658 -0.00241025 0.00108658 0.00373164 0.00332002 0.00259216 -0.00170923 0.00328488 0.00209654 -0.0035388 0.00483549 -0.00146503 0.00187198 -0.00499449 0.00500744 0.00331351 -0.00506627 0.00374362 0.00497815 0.00170786 0.00743354 0.00277043 0.00620967 0.00811188 0.00440976 0.00365259 0.00392986 0.00186814 0.00623931 0.00213012 0.00241753 0.00331254 0.00241113 0.00312034 0.00533632 0.000490252 0.00103061 0.00226539 0.00452503 0.00326346 0.00567891 0.00436647 0.00216898 -0.000439392 0.00525078 0.00743256 0.00352949 0.00542314 0.002313 0.00182725 0.00143668 0.00245438 0.004367 0.00428273 0.00368401 0.00457304 0.00615905 -0.000639576 0.000339765
internal_weight=2205.95 1302.25 1126.44 1002.87 857.187 145.684 903.699 818.206 175.813 550.482 372.939 283.261 268.286 245.571 369.205 152.422 43.0248 168.288 59.7018 365.561 353.217 332.389 222.926 85.9821 82.0587 20.0162 177.542 123.565 101.458 23.391 38.981 77.2828 62.0425 49.1011 10.6007 66.5077 449 57.0575 42.2612 444.608 89.6788 55.8172 33.8616 14.9747 6.04751 41.9846 24.75 153.84 108.82 25.9994 17.1049 45.0207 94.5537 91.0415 69.3303 36.6875 109.462 29.2217 20.8288 12.6771 4.39233 31.9081 25.1249 50.2084 34.3188 10.3224 21.7112 76.0844 23.3746 10.3772 22.7149 80.2405 71.263 66.5756 63.4208 11.9504 52.7098 46.6732 38.8556 36.4241 24.2465 20.85
internal_count=673820 558375 534136 522090 478889 43201 115445 473397 24239 98322 80920 72064 70331 69420 187017 17018 2977 58501 7946 186523 17123 16231 7697 35255 34626 6029 17402 12046 12071 7221 5492 10919 28597 5688 2258 10051 286380 1995 4341 285336 8856 4838 4018 1733 1300 1419 949 5196 4322 2480 1904 874 11839 11442 8833 4016 8534 1243 892 1935 1044 2680 2366 4375 3216 2399 2609 5331 1270 840 911 7291 6594 6366 3200 1212 4061 3779 3342 3753 5710 5004
is_linear=0
shrinkage=0.00740447


Tree=7
num_leaves=83
num_cat=0
split_feature=24 14 3 6 13 4 6 13 3 6 3 24 22 22 3 8 3 24 4 7 7 10 6 6 2 6 22 8 24 6 10 4 32 13 35 25 32 4 10 14 20 7 8 2 25 6 13 3 7 6 10 32 8 14 14 8 24 3 20 22 4 6 4 25 20 35 32 20 32 10 32 35 7 22 10 14 7 14 32 10 22 10
split_gain=220.229 116.268 92.8775 35.2051 33.4655 22.3254 19.5409 19.3814 26.8059 19.6058 12.5975 10.2125 8.20284 6.92743 8.82332 8.10705 6.58412 6.57228 6.48448 6.28168 5.98631 5.98523 5.94877 5.74673 5.61876 8.94143 5.57046 5.52054 5.47424 6.55471 5.11807 4.93082 4.90142 7.07088 4.76675 4.73137 4.60127 4.51734 7.21443 4.60926 4.28077 4.18992 4.09995 4.07521 4.83919 4.04451 4.00463 3.62251 3.61913 3.58095 3.50422 3.40737 3.29571 3.2108 3.36957 3.12714 3.07677 3.27663 3.02345 3.01725 2.97247 2.97051 2.83031 2.81005 2.69115 3.9567 2.66974 4.60398 2.66851 3.36187 3.28547 3.35182 3.25166 3.08493 2.70774 2.63773 2.61335 2.60739 2.59853 4.34473 2.55109 3.80287
threshold=0.84679557614717871 1.0602484055986128 -0.76337533147437187 -0.54970320943817141 0.98151196246471994 0.014968666565438401 -0.97060098137164497 0.59764290870736148 -1.2186853784402383 -1.0925474831365385 -2.171178685330577 -1.0522342880455253 1.6795826488046808 -0.23913661901267277 -2.3214590312661603 1.7865095460606686 -0.76337533147437187 -1.0117821420604927 1.0000000180025095e-35 -0.6455587070906611 -1.1232765650946492 -1.3700543268844025 -0.66858412055646577 -1.0925474831365385 -1.1357455674342847 -1.0055001340967527 2.5850106691472781 2.4372736785017177 0.29622917990837999 -0.88915123413842456 2.4280323867677338 -0.93467277801858206 -2.0392537248673066 1.4519409237789143 -1.8281043562270747 -1.4492466110835245 -3.1342188880545439 -1.3995844501068124 -0.35780475904325182 -0.0059345806419334119 0.0575963743031025 0.1065687407384498 -1.6398878998077044 -1.0258661010172376 -0.9030780824358916 -0.45184286055546435 -0.43062773436375967 -0.80381080344455247 -0.98411794744977354 0.1671890345024338 -0.89930287788167351 1.2185852127258732 2.8214759210396312 3.3668128266944701 0.9898023038342062 -0.19889046045298797 0.28461102519369635 -0.51358632449825137 -0.04937192611396312 0.12901242362052376 -1.6173274807511355 0.54098200594738577 -0.71264539438487329 -0.56750536989127265 -0.019830781035125252 -0.63942725271138989 0.60242183482257061 -0.49170444905757899 -3.7601965441513667 -0.76004450675378166 -0.93025805165512032 0.80677609274924034 4.0407228287043901 -0.33011071750284754 1.3786484404243136 0.9898023038342062 -0.70295394289684976 -0.15036363938846259 -1.2630935334753792 2.0721967804917405 0.67413922385124458 -1.4345266735106068
decision_type=2 2 2 2 2 2 2 2 2 2 2 2 2 2 2 2 2 2 2 2 2 2 2 2 2 2 2 2 2 2 2 2 2 2 2 2 2 2 2 2 2 2 2 2 2 2 2 2 2 2 2 2 2 2 2 2 2 2 2 2 2 2 2 2 2 2 2 2 2 2 2 2 2 2 2 2 2 2 2 2 2 2
left_child=1 2 3 28 5 6 17 8 37 -10 -5 24 18 68 26 53 22 62 32 47 -11 31 -17 -6 -3 51 60 36 29 40 -23 -8 -13 -34 56 -19 -25 38 49 59 42 -40 -1 -18 -45 -14 48 76 -27 50 -2 -26 61 54 -16 58 57 -7 -30 -39 78 -43 -4 -47 65 -28 -31 -68 -9 -70 71 72 -71 74 -72 -21 -12 -57 -15 -80 -20 -82
right_child=7 11 4 10 23 34 21 13 9 20 19 12 45 14 15 16 43 35 80 75 -22 30 -24 27 25 46 64 -29 55 66 -32 -33 33 -35 -36 -37 -38 39 41 -41 -42 52 -44 44 -46 63 -48 -49 -50 -51 -52 -53 -54 -55 -56 77 -58 -59 -60 -61 -62 -63 -64 -65 -66 -67 67 -69 69 70 73 -73 -74 -75 -76 -77 -78 -79 79 -81 81 -83
leaf_value=0.0090873124116665031 0.0048259333930184001 0.011402850178856257 0.0021333618124494383 0.0029796120368728819 0.0094759949200216801 0.0050859439953297222 0.008759414037207312 0.0075297218091835098 0.0066733468268037116 0.0097417639701586171 -0.0036285597795528259 0.010579228369927477 0.0064099094622901143 0.0054181327945144525 9.539135182088179e-05 0.007382236069203213 -0.00070763318866238806 0.0079494438185961861 -0.0045382486737031913 -0.0042307972347839368 -0.0031242409059526379 -0.0040852606504916556 -0.0011304677842756245 0.0027658218139879165 0.0014769826412112115 0.0068012408746553612 0.0040537162424346658 0.0032857175693452355 -0.0011728963396716511 -0.0025262514362552812 0.0027033613211663371 -0.0017780772968247751 0.0022546220712185111 -0.0095522353168964978 -0.0055209500837331933 0.00092341052712380527 -0.0027361135345220036 -0.00034015628607574029 -0.0022331977717529703 0.0036379824180139187 0.0096797944126501105 0.0049516555777215105 0.0027440797755666612 0.0078083836940375231 0.0037112874472488341 -0.0022270400184493961 0.010582184905118445 0.010880546375592744 0.000713459103769504 0.0021671264277915957 0.0090461858616510821 -0.0086959761428898972 -0.00096207416660535955 0.0045221280503766744 -0.0052369277555172058 0.0088715940366040306 0.0049960898330658398 -0.0049095582120118279 0.0069838046290825627 -0.0083339506653634134 0.006374019946149779 0.00071038608628994277 -0.0073285900098756336 0.0034040692947745611 0.0050605141049162297 -0.00091101177313465871 0.010604306970764036 0.00014678272531782076 0.0087709004349436279 0.005275592449202623 0.0019554123955927241 -0.00029510102519104525 0.010833824981160221 0.0049254000710875533 -0.0050120084322109338 0.0073521827282497657 0.006735686643041949 0.0046525501413851441 0.004277771270673838 0.00031144073128871471 0.007188035585493897 -0.0020808801039866038
leaf_weight=6.3724102547857902 21.717967923090324 8.927631681901401 2.2844641448173206 22.343193108623382 4.1778618932585223 2.20274666318437 3.5676343126688153 26.371288366732188 13.704918090312274 2.0273185285623176 4.0228513760957867 3.5311423495295449 25.635471173387486 67.871212920697872 47.618694714736193 5.4318716942216296 8.327958145295268 5.856996680086012 13.702376077999363 68.633055301354034 87.848003265156876 284.10093281994341 26.239348781004082 11.687525009794625 4.9342327133053905 18.043618088180665 14.384223026281687 24.62341193651082 5.6166162330191582 13.050609150144739 6.2175412186188614 7.6576717369607632 46.493184711376671 2.9569490036810739 444.03611018601805 51.240857176191639 29.016025043209083 13.124672851641664 9.4632588048116286 16.372894428670406 7.035533337853848 35.524124679039232 45.578254485444631 20.956256978271995 64.539917639223859 5.4392808721167958 9.7010958493337984 2.2161880450439622 7.6263696987880385 10.861420677101703 21.510764131555337 2.843498126603663 9.2282886770553869 7.5327245826483695 7.5220719309872939 19.71869174472522 3.3169518354115999 9.7370257916045357 4.4716081284568627 3.226859980786684 48.973266921413597 12.169653134886174 7.134043088037286 45.118843521369854 11.93437496043043 22.659636869269889 2.8033422544831401 13.088970836193765 10.29095686227083 27.346428470686078 12.653464703646025 4.5615907347528255 7.3308885950827962 14.683814788819292 4.0319010068778871 1.0932894480065432 1.9949376537697388 13.607844055164604 81.385992930911016 18.619441819726489 3.1015263918670817 11.151126109296454
leaf_count=235 895 181 508 2127 87 318 522 543 870 146 1750 221 1520 1304 10468 122 942 165 4542 36038 39720 164166 4316 421 813 817 404 1442 741 2878 1129 3661 6620 408 298381 11732 10714 3256 793 2604 340 1602 3661 1028 4453 1140 368 238 671 841 766 346 426 356 1674 981 754 4610 269 878 2339 1254 3858 3374 449 903 280 2320 627 3144 1607 391 121 1566 815 226 478 848 2442 599 106 2248
internal_value=-7.42981e-06 -0.00185816 -0.00279806 0.00138156 -0.00387763 -0.00429221 -0.00293332 0.00301894 0.00133378 -0.00157556 -0.00192143 0.00321178 0.00226971 0.00378985 0.00338985 0.00216267 0.00324879 0.00069897 0.000627865 -0.00332638 -0.00283372 -0.00373464 0.000328808 0.00105687 0.00605378 0.00494639 0.00425842 0.000518024 0.00390415 0.00284141 -0.00393979 0.0015689 0.0021505 0.00154806 -0.00538111 0.0016446 -0.00115568 0.00330098 0.0039637 0.000860402 0.00425753 0.0023275 0.00352268 0.00423419 0.00471585 0.00401341 0.00652713 0.00278807 0.0049936 0.00597133 0.00692657 -0.00223922 0.00308616 -1.17592e-05 -0.000631599 0.00605594 -0.00130947 -0.00306335 0.00244022 -0.00191931 0.0047679 0.00386997 -0.00503097 0.00279775 0.00200216 0.00101616 -4.3826e-05 0.00199317 0.00548255 0.00481488 0.00423792 0.0056665 0.00645142 0.00245012 0.000270243 -0.00404879 -0.00018847 0.00714968 0.0042992 0.00353955 -0.00225699 -6.20229e-05
internal_weight=2155.76 1337.71 1128.51 231.647 896.858 827.353 368.06 818.047 256.78 103.58 100.304 209.206 157.13 561.267 453.997 188.169 125.495 66.5164 80.9363 77.9603 89.8753 301.544 31.6712 69.5048 52.0764 43.1488 265.828 65.327 131.344 87.9291 290.318 11.2253 52.9813 49.4501 459.293 57.0979 40.7036 153.2 120.475 32.7244 58.9862 66.3853 51.9507 93.8241 85.4962 76.1936 35.3711 8.23398 25.67 54.0902 43.2287 7.77773 56.9221 62.6735 55.1408 43.4148 15.2567 11.9398 10.0882 16.3515 216.85 47.6938 9.41851 50.5581 48.9782 37.0439 28.9429 15.8923 107.27 80.899 70.6081 39.2389 34.6773 31.3692 16.6854 69.7263 6.01779 33.3265 167.877 100.005 27.955 14.2527
internal_count=673917 579253 555878 53410 502468 489804 185741 94664 54051 40736 40857 23375 20179 40613 31799 23359 10861 16263 14145 38730 39866 169478 4438 12664 3196 3015 8440 12577 12553 9714 165295 4183 7249 7028 304063 11897 11135 13315 6577 6738 4236 4075 3896 6423 5481 6034 1856 2466 1488 2502 1661 1159 3282 12498 12142 2839 5682 4928 1010 4134 6684 2856 4366 4514 1756 1307 5478 2600 8814 8271 7644 3656 3265 3988 2422 36264 2228 1829 4345 3041 6896 2354
is_linear=0
shrinkage=0.00740447


end of trees

feature_importances:
volatility_4w=41
mom_reversal=36
ma_ratio_4w=30
up_ratio_4w=30
ma_slope_24w=29
vol_ratio_4_12=28
obv_change_4w=27
volatility_24w=26
realized_var_8w=26
volume_change_1w=26
avg_volume_4w=25
mom_short_long=23
vol_up_down_ratio=21
downside_vol_8w=19
ma_ratio_8w=19
mom_accel_1m=18
volatility_12w=18
ret_quantile_25_8w=18
vol_change_4w=17
avg_volume_8w=17
max_retreat_4w=17
mom_12m=16
avg_amount_4w=15
mom_1m=14
volatility_8w=13
mom_1w=12
max_retreat_8w=12
kurtosis_12w=12
up_ratio_12w=12
avg_volume_12w=11
skewness_8w=11
kdj_j=9
boll_width=5
vol_price_corr_8w=3

parameters:
[boosting: gbdt]
[objective: lambdarank]
[metric: ndcg]
[tree_learner: serial]
[device_type: cpu]
[data_sample_strategy: bagging]
[data: ]
[valid: ]
[num_iterations: 5000]
[learning_rate: 0.00740447]
[num_leaves: 83]
[num_threads: 0]
[seed: 42]
[deterministic: 0]
[force_col_wise: 0]
[force_row_wise: 0]
[histogram_pool_size: -1]
[max_depth: 8]
[min_data_in_leaf: 414]
[min_sum_hessian_in_leaf: 0.001]
[bagging_fraction: 0.879554]
[pos_bagging_fraction: 1]
[neg_bagging_fraction: 1]
[bagging_freq: 7]
[bagging_seed: 400]
[bagging_by_query: 0]
[feature_fraction: 0.432526]
[feature_fraction_bynode: 1]
[feature_fraction_seed: 30056]
[extra_trees: 0]
[extra_seed: 12879]
[early_stopping_round: 0]
[early_stopping_min_delta: 0]
[first_metric_only: 0]
[max_delta_step: 0]
[lambda_l1: 0.00333479]
[lambda_l2: 0.000307865]
[linear_lambda: 0]
[min_gain_to_split: 0.00576249]
[drop_rate: 0.1]
[max_drop: 50]
[skip_drop: 0.5]
[xgboost_dart_mode: 0]
[uniform_drop: 0]
[drop_seed: 17869]
[top_rate: 0.2]
[other_rate: 0.1]
[min_data_per_group: 100]
[max_cat_threshold: 32]
[cat_l2: 10]
[cat_smooth: 10]
[max_cat_to_onehot: 4]
[top_k: 20]
[monotone_constraints: ]
[monotone_constraints_method: basic]
[monotone_penalty: 0]
[feature_contri: ]
[forcedsplits_filename: ]
[refit_decay_rate: 0.9]
[cegb_tradeoff: 1]
[cegb_penalty_split: 0]
[cegb_penalty_feature_lazy: ]
[cegb_penalty_feature_coupled: ]
[path_smooth: 0]
[interaction_constraints: ]
[verbosity: -1]
[saved_feature_importance_type: 0]
[use_quantized_grad: 0]
[num_grad_quant_bins: 4]
[quant_train_renew_leaf: 0]
[stochastic_rounding: 1]
[linear_tree: 0]
[max_bin: 255]
[max_bin_by_feature: ]
[min_data_in_bin: 3]
[bin_construct_sample_cnt: 200000]
[data_random_seed: 175]
[is_enable_sparse: 1]
[enable_bundle: 1]
[use_missing: 1]
[zero_as_missing: 0]
[feature_pre_filter: 0]
[pre_partition: 0]
[two_round: 0]
[header: 0]
[label_column: ]
[weight_column: ]
[group_column: ]
[ignore_column: ]
[categorical_feature: ]
[forcedbins_filename: ]
[precise_float_parser: 0]
[parser_config_file: ]
[objective_seed: 16083]
[num_class: 1]
[is_unbalance: 0]
[scale_pos_weight: 1]
[sigmoid: 1]
[boost_from_average: 1]
[reg_sqrt: 0]
[alpha: 0.9]
[fair_c: 1]
[poisson_max_delta_step: 0.7]
[tweedie_variance_power: 1.5]
[lambdarank_truncation_level: 30]
[lambdarank_norm: 1]
[label_gain: ]
[lambdarank_position_bias_regularization: 0]
[eval_at: 5,10,20]
[multi_error_top_k: 1]
[auc_mu_weights: ]
[num_machines: 1]
[local_listen_port: 12400]
[time_out: 120]
[machine_list_filename: ]
[machines: ]
[gpu_platform_id: -1]
[gpu_device_id: -1]
[gpu_use_dp: 0]
[num_gpu: 1]

end of parameters

pandas_categorical:null
